weights:{0.03146,-0.22131,-0.16504,0.49069,-0.16202,0.18909,0.25793,0.42477,0.09711,-0.13992,0.51025,-0.02078,0.32730,0.20966,0.03329,-0.24902,-0.33121,0.45410,0.41440,-0.41949,0.34625,0.19241,-0.20078,0.07065,0.21265,-0.40250,0.31036,0.23291,-0.36057,-0.35593,0.48581,0.13068,0.28439,0.12750,0.01639,0.10333,-0.14624,0.20563,-0.10635,-0.12549,-0.16205,-0.31219,-0.49408,0.37686,-0.24225,-0.08575,-0.08603,-0.23550,-0.10959,-0.31494,0.18610,-0.05557,0.25409,-0.23428,0.13416,0.03931,-0.24512,-0.14484,0.24420,0.37161,0.18018,0.03677,-0.19232,0.36227,-0.38708,-0.33609,-0.64001,0.22708,-0.42877,0.69736,-0.10623,0.11368,-0.86295,0.09430,-0.43973,-0.32584,-0.60764,0.39880,0.34216,-0.02817,-0.25107,0.29282,0.36502,0.36588,0.29337,-0.34442,-0.15155,0.06216,0.59290,0.13324,0.20236,0.58002,0.47290,-0.37650,-0.10858,0.23923,0.10547,0.49380,-0.29022,-0.55228,-0.13571,0.07745,0.34616,0.13373,-0.00223,0.12305,-0.09497,0.05865,-0.05884,-0.25513,-0.05145,0.38455,-0.43552,0.29950,0.09689,0.31970,-0.39554,-0.29974,-0.40756,0.30481,0.15701,0.20483,-0.34802,0.05444,-0.08960,0.20432,-0.18106,-0.11234}
bias: -2.77960
